{
  "features": [
    "sc_s",
    "sc_m",
    "sc_c",
    "ms_s",
    "ms_m",
    "ms_c",
    "ma_s",
    "ma_m",
    "ma_c",
    "mc_s",
    "mc_m",
    "mc_c",
    "hdl_8",
    "hdl_7",
    "hdl_6",
    "hdl_5",
    "hdl_4",
    "hdl_3",
    "hdl_2",
    "hdl_1",
    "vh_l",
    "vh",
    "vw_l",
    "vw",
    "sh_l",
    "sh",
    "sw_l",
    "sw",
    "nd_l",
    "nd",
    "sl"
  ],
  "featureNorms": [
    517.6075439453125,
    259.0503234863281,
    2000,
    0,
    0,
    519.5626220703125,
    256.8916931152344,
    2000,
    0,
    0,
    72.15839385986328,
    50.286808013916016,
    250,
    0,
    0,
    308.95794677734375,
    74.32100677490234,
    2000,
    0,
    0,
    303.958251953125,
    74.3578109741211,
    2000,
    0,
    0,
    46.327491760253906,
    12.176231384277344,
    250,
    0,
    0,
    81.7308578491211,
    20.956716537475586,
    400,
    0,
    0,
    90.91142272949219,
    20.499736785888672,
    800,
    0,
    0,
    39.008079528808594,
    9.328009605407715,
    250,
    0,
    0,
    18.571128845214844,
    4.385979652404785,
    100,
    0,
    0,
    47.87806701660156,
    13.712105751037598,
    250,
    0,
    0,
    2.6872384548187256,
    0.8221862316131592,
    15,
    0,
    0,
    0.429564505815506,
    0.42809873819351196,
    100,
    0,
    0,
    0.4058310091495514,
    0.2510136663913727,
    100,
    0,
    0,
    0.4092843234539032,
    0.2437010109424591,
    100,
    0,
    0,
    0.02374490350484848,
    0.001332712359726429,
    100,
    0,
    0,
    0.11289047449827194,
    0.014675545506179333,
    100,
    0,
    0,
    0.1098373606801033,
    0.01395498402416706,
    100,
    0,
    0,
    0.395195871591568,
    0.2188614010810852,
    100,
    0,
    0,
    0.02460976503789425,
    0.001341491937637329,
    100,
    0,
    0,
    158.79652404785156,
    763.3583984375,
    5000,
    0,
    763.3583984375,
    158.4890899658203,
    763.6178588867188,
    5000,
    0,
    763.6178588867188,
    516.7848510742188,
    851.240478515625,
    5000,
    0,
    851.240478515625,
    516.681396484375,
    851.0366821289062,
    5000,
    0,
    851.0366821289062,
    238.3354949951172,
    940.9227905273438,
    5000,
    0,
    940.9227905273438,
    236.19178771972656,
    940.6156616210938,
    5000,
    0,
    940.6156616210938,
    623.4334716796875,
    900.955078125,
    5000,
    0,
    900.955078125,
    623.2576904296875,
    900.50537109375,
    5000,
    0,
    900.50537109375,
    104.65910339355469,
    166.84262084960938,
    300,
    0,
    300,
    118.53720092773438,
    142.104736328125,
    300,
    0,
    300,
    7.412806510925293,
    13.567523002624512,
    20,
    0,
    0
  ],
  "layers": [
    {
      "type": "sigmoid"
    },
    {
      "bias": [
        -0.5525665879249573
      ],
      "weights": [
        1.125,
        1.375,
        -1.375,
        1.25,
        -0.9375,
        -1.5,
        1.875,
        1.125,
        -1.875,
        -1.25,
        -1.0,
        2.5,
        1.0,
        2.5,
        0.875,
        1.5
      ],
      "type": "dense"
    },
    {
      "type": "relu"
    },
    {
      "epsilon": 0.0010000000474974513,
      "weights": [
        0.000903754960745573,
        0.0008862449903972447,
        0.001250161905772984,
        0.0005386281409300864,
        0.0007534315227530897,
        0.000892588053829968,
        0.001673010759986937,
        0.0014817592455074191,
        0.0007705833995714784,
        0.00222411728464067,
        0.0014801357174292207,
        0.0014847409911453724,
        0.0014539198018610477,
        0.0018070442602038383,
        0.0013498965417966247,
        0.000546623719856143,
        3.2404932975769043,
        3.35890793800354,
        3.3809902667999268,
        3.4713943004608154,
        2.1993257999420166,
        3.114743709564209,
        2.8961503505706787,
        3.527815580368042,
        2.068837881088257,
        3.6165246963500977,
        3.4764206409454346,
        3.4440557956695557,
        3.582775354385376,
        3.452209711074829,
        3.48968768119812,
        2.937093734741211,
        -0.17486774921417236,
        -0.3812711834907532,
        -0.3292318880558014,
        -0.368171751499176,
        -0.41700607538223267,
        -0.37752166390419006,
        -0.7264352440834045,
        0.02575656771659851,
        -0.7190783619880676,
        -0.271237313747406,
        -0.29682305455207825,
        -0.7956787347793579,
        0.2518749535083771,
        -1.2795186042785645,
        0.2591845393180847,
        -0.4316757917404175,
        1.7427245378494263,
        1.509194016456604,
        1.7206617593765259,
        1.6996415853500366,
        1.9744819402694702,
        1.7069880962371826,
        1.7061330080032349,
        1.858660101890564,
        1.2885329723358154,
        1.5253336429595947,
        1.6087737083435059,
        1.8357436656951904,
        1.4690173864364624,
        2.343240737915039,
        1.4062814712524414,
        1.4938592910766602
      ],
      "type": "batchnorm"
    },
    {
      "bias": [
        3.25384259223938,
        3.3813185691833496,
        3.3859426975250244,
        3.4832873344421387,
        2.199287176132202,
        3.1210150718688965,
        2.920663833618164,
        3.526193857192993,
        2.0924909114837646,
        3.626450538635254,
        3.483769178390503,
        3.47281813621521,
        3.579819440841675,
        3.4868898391723633,
        3.484395980834961,
        2.9557251930236816
      ],
      "weights": [
        0.011719,
        0.007812,
        -0.015625,
        0.005859,
        -0.003906,
        -0.025391,
        0.005859,
        0.007812,
        -0.025391,
        -0.021484,
        -0.021484,
        0.003906,
        0.017578,
        0.001953,
        0.019531,
        0.007812,
        0.009766,
        0.003906,
        -0.009766,
        0.001953,
        -0.0,
        -0.007812,
        -0.019531,
        0.021484,
        -0.009766,
        -0.013672,
        -0.001953,
        0.0,
        0.021484,
        -0.013672,
        0.019531,
        -0.001953,
        -0.003906,
        -0.003906,
        0.011719,
        -0.011719,
        -0.011719,
        0.015625,
        -0.003906,
        -0.013672,
        0.015625,
        0.015625,
        0.011719,
        -0.011719,
        -0.013672,
        0.0,
        -0.013672,
        0.0,
        -0.001953,
        -0.013672,
        0.019531,
        -0.011719,
        -0.005859,
        0.015625,
        -0.009766,
        -0.001953,
        0.013672,
        0.015625,
        0.017578,
        -0.009766,
        -0.013672,
        -0.009766,
        -0.013672,
        -0.0,
        -0.017578,
        -0.021484,
        0.0,
        -0.009766,
        -0.007812,
        0.001953,
        -0.042969,
        -0.013672,
        0.007812,
        -0.007812,
        0.001953,
        -0.039062,
        -0.007812,
        -0.039062,
        -0.007812,
        -0.015625,
        0.001953,
        0.001953,
        -0.019531,
        0.003906,
        -0.03125,
        -0.023438,
        0.0,
        0.001953,
        -0.013672,
        -0.023438,
        -0.029297,
        0.001953,
        0.001953,
        -0.019531,
        0.001953,
        -0.019531,
        -0.029297,
        -0.035156,
        0.005859,
        -0.039062,
        -0.001953,
        0.0,
        -0.015625,
        -0.017578,
        0.003906,
        0.0,
        0.007812,
        -0.029297,
        -0.009766,
        -0.03125,
        -0.007812,
        -0.039062,
        0.005859,
        0.003906,
        -0.023438,
        0.001953,
        -0.009766,
        -0.025391,
        0.003906,
        0.007812,
        -0.023438,
        -0.023438,
        -0.023438,
        0.001953,
        0.007812,
        -0.0,
        0.011719,
        0.001953,
        -0.017578,
        -0.011719,
        0.013672,
        -0.019531,
        0.003906,
        0.011719,
        -0.011719,
        -0.023438,
        0.013672,
        0.023438,
        0.021484,
        -0.005859,
        -0.011719,
        -0.013672,
        -0.013672,
        -0.013672,
        0.001953,
        0.001953,
        -0.021484,
        0.001953,
        -0.019531,
        -0.011719,
        0.007812,
        0.001953,
        -0.017578,
        -0.025391,
        -0.03125,
        0.003906,
        0.011719,
        0.003906,
        0.013672,
        0.001953,
        -0.009766,
        -0.013672,
        0.001953,
        -0.001953,
        0.029297,
        0.003906,
        -0.025391,
        -0.005859,
        -0.046875,
        0.005859,
        0.001953,
        -0.017578,
        -0.001953,
        -0.023438,
        -0.001953,
        -0.007812,
        -0.021484,
        -0.011719,
        -0.035156,
        -0.023438,
        -0.009766,
        -0.029297,
        -0.003906,
        -0.017578,
        -0.021484,
        -0.011719,
        -0.007812,
        -0.009766,
        -0.021484,
        -0.019531,
        -0.017578,
        -0.023438,
        -0.015625,
        -0.021484,
        0.009766,
        -0.042969,
        -0.007812,
        0.013672,
        -0.005859,
        -0.017578,
        0.009766,
        0.009766,
        0.015625,
        -0.021484,
        -0.009766,
        -0.023438,
        -0.009766,
        -0.029297,
        -0.009766,
        -0.011719,
        0.001953,
        -0.003906,
        -0.009766,
        -0.007812,
        -0.015625,
        -0.003906,
        0.001953,
        0.017578,
        0.003906,
        -0.046875,
        -0.0,
        -0.029297,
        0.0,
        -0.007812,
        -0.013672,
        -0.013672,
        -0.003906,
        -0.011719,
        -0.021484,
        -0.003906,
        -0.009766,
        -0.009766,
        -0.0,
        -0.03125,
        -0.03125,
        -0.011719,
        0.001953,
        -0.011719,
        0.003906,
        -0.013672,
        -0.025391,
        -0.03125,
        0.003906,
        -0.039062,
        -0.007812,
        0.001953,
        -0.013672,
        -0.017578,
        0.003906,
        -0.001953,
        0.007812,
        -0.03125,
        -0.009766,
        -0.03125,
        -0.007812,
        -0.039062
      ],
      "type": "dense"
    },
    {
      "type": "relu"
    },
    {
      "epsilon": 0.0010000000474974513,
      "weights": [
        0.00836006086319685,
        0.007587512955069542,
        0.0036246180534362793,
        0.013216843828558922,
        0.008493543602526188,
        0.004753101151436567,
        0.012745051644742489,
        0.010982535779476166,
        0.011503282003104687,
        0.014492939226329327,
        0.023142607882618904,
        0.003560429671779275,
        0.011358756572008133,
        0.008740261197090149,
        0.0035419566556811333,
        0.019481588155031204,
        0.005691723898053169,
        -0.013701577670872211,
        0.008322691544890404,
        -0.0017347910907119513,
        -0.0020637251436710358,
        -0.007606190163642168,
        -0.006093047093600035,
        0.009501002728939056,
        0.001795595046132803,
        0.008590806275606155,
        0.0233125202357769,
        0.0017324101645499468,
        -0.016433944925665855,
        -0.009242888540029526,
        0.003024153644219041,
        0.003032664768397808,
        -0.6300666332244873,
        -0.0008593972306698561,
        -1.3719481229782104,
        -0.2937150299549103,
        -0.11273029446601868,
        -1.085101842880249,
        -0.6805803775787354,
        -0.253055214881897,
        -0.9266420006752014,
        -0.16724474728107452,
        -0.3920957148075104,
        -1.2369905710220337,
        -0.9151118397712708,
        -0.012356043793261051,
        -1.4802935123443604,
        -0.630948007106781,
        1.1345078945159912,
        1.4114314317703247,
        0.9767438769340515,
        0.7211475372314453,
        0.7646088600158691,
        1.1818115711212158,
        1.1376491785049438,
        0.8417053818702698,
        1.2404875755310059,
        0.8583624958992004,
        1.4131910800933838,
        1.2552645206451416,
        1.158957600593567,
        0.5842505693435669,
        0.7984091639518738,
        1.3921178579330444
      ],
      "type": "batchnorm"
    },
    {
      "bias": [
        0.006320764310657978,
        -0.014043104834854603,
        0.008861067704856396,
        -0.0027956708800047636,
        -0.0019652622286230326,
        -0.008109248243272305,
        -0.006497547961771488,
        0.010847913101315498,
        0.0008039657841436565,
        0.009744268842041492,
        0.021913886070251465,
        0.001609482103958726,
        -0.017311381176114082,
        -0.009425525553524494,
        0.0024680353235453367,
        0.0031739724799990654
      ],
      "weights": [
        0.0,
        0.001953,
        -0.0,
        0.007812,
        0.001953,
        -0.0,
        -0.035156,
        -0.003906,
        0.005859,
        0.0,
        0.001953,
        -0.039062,
        -0.03125,
        0.001953,
        0.0,
        0.0,
        -0.017578,
        -0.0,
        0.001953,
        0.007812,
        0.003906,
        0.0,
        -0.001953,
        0.001953,
        0.011719,
        -0.001953,
        0.013672,
        0.0,
        0.003906,
        0.005859,
        0.007812,
        0.007812,
        0.003906,
        -0.001953,
        -0.042969,
        -0.054688,
        -0.001953,
        0.003906,
        -0.054688,
        0.001953,
        -0.007812,
        0.007812,
        -0.013672,
        0.001953,
        -0.0625,
        -0.001953,
        -0.003906,
        -0.058594,
        0.0,
        0.0,
        -0.0,
        -0.001953,
        0.0,
        0.0,
        -0.0,
        -0.0,
        -0.011719,
        0.0,
        0.001953,
        -0.001953,
        -0.0,
        -0.0,
        -0.023438,
        -0.001953,
        -0.0,
        -0.003906,
        0.0,
        -0.003906,
        0.001953,
        -0.001953,
        0.001953,
        0.0,
        -0.005859,
        -0.0,
        0.007812,
        0.0,
        0.001953,
        0.005859,
        0.0,
        0.005859,
        0.0,
        -0.003906,
        0.001953,
        0.003906,
        -0.0,
        -0.0,
        -0.0,
        0.0,
        0.005859,
        -0.0,
        -0.007812,
        0.0,
        0.0,
        -0.003906,
        0.0,
        -0.042969,
        -0.001953,
        0.001953,
        0.001953,
        -0.001953,
        0.001953,
        0.003906,
        0.0,
        0.0,
        0.001953,
        0.001953,
        -0.0625,
        0.0,
        -0.035156,
        -0.003906,
        -0.023438,
        -0.001953,
        -0.003906,
        -0.003906,
        -0.0,
        -0.042969,
        0.001953,
        -0.0,
        0.001953,
        0.0,
        -0.0,
        -0.003906,
        -0.023438,
        -0.001953,
        -0.001953,
        0.005859,
        -0.0,
        0.001953,
        -0.001953,
        0.085938,
        -0.009766,
        -0.023438,
        -0.085938,
        0.027344,
        -0.070312,
        0.003906,
        -0.019531,
        0.054688,
        -0.039062,
        -0.017578,
        -0.017578,
        -0.070312,
        -0.017578,
        -0.078125,
        0.017578,
        0.0,
        0.0,
        0.001953,
        0.0,
        -0.0,
        0.0,
        0.003906,
        0.003906,
        0.005859,
        0.0,
        0.0,
        -0.001953,
        0.0,
        0.0,
        -0.0,
        -0.027344,
        -0.001953,
        -0.001953,
        0.011719,
        0.0,
        0.001953,
        -0.0,
        0.001953,
        -0.011719,
        -0.0,
        0.003906,
        0.0,
        0.001953,
        -0.001953,
        0.003906,
        0.0,
        -0.046875,
        0.0,
        -0.0,
        -0.009766,
        0.0,
        0.001953,
        0.0,
        -0.003906,
        -0.001953,
        0.003906,
        -0.0,
        -0.029297,
        0.001953,
        0.001953,
        -0.001953,
        -0.0,
        0.005859,
        0.003906,
        0.007812,
        -0.007812,
        -0.005859,
        -0.046875,
        -0.001953,
        0.009766,
        -0.042969,
        0.029297,
        -0.035156,
        -0.019531,
        -0.007812,
        -0.001953,
        -0.009766,
        -0.003906,
        -0.013672,
        0.003906,
        -0.042969,
        0.017578,
        -0.003906,
        -0.023438,
        0.001953,
        -0.013672,
        0.011719,
        -0.013672,
        0.005859,
        -0.039062,
        -0.005859,
        0.001953,
        0.017578,
        -0.001953,
        -0.003906,
        -0.009766,
        -0.007812,
        0.023438,
        0.013672,
        0.009766,
        0.001953,
        0.001953,
        0.023438,
        -0.017578,
        0.029297,
        0.001953,
        0.009766,
        0.017578,
        -0.007812,
        0.003906,
        0.0,
        -0.0,
        -0.001953,
        -0.001953,
        -0.001953,
        0.003906,
        0.0,
        0.0,
        -0.001953,
        -0.001953,
        -0.0,
        0.0,
        0.0,
        -0.001953,
        0.0,
        0.0,
        0.003906,
        0.001953,
        0.003906,
        -0.001953,
        0.001953,
        -0.009766,
        0.0,
        -0.001953,
        -0.001953,
        0.007812,
        -0.001953,
        -0.0,
        -0.001953,
        0.001953,
        -0.0,
        0.0,
        -0.001953,
        -0.003906,
        0.0,
        -0.003906,
        -0.0,
        -0.005859,
        -0.0,
        -0.001953,
        -0.003906,
        -0.015625,
        -0.003906,
        -0.005859,
        -0.001953,
        -0.001953,
        -0.007812,
        0.0,
        -0.005859,
        -0.001953,
        0.007812,
        0.011719,
        0.013672,
        -0.039062,
        -0.0,
        -0.007812,
        0.029297,
        -0.046875,
        0.017578,
        0.009766,
        -0.003906,
        0.019531,
        -0.039062,
        0.0,
        0.0,
        -0.0,
        -0.001953,
        -0.001953,
        -0.001953,
        0.0,
        0.0,
        0.0,
        -0.001953,
        -0.001953,
        -0.001953,
        -0.0,
        0.0,
        -0.0,
        0.003906,
        0.0,
        -0.001953,
        -0.0,
        -0.005859,
        0.0,
        -0.001953,
        -0.007812,
        -0.0,
        0.0,
        -0.001953,
        -0.013672,
        -0.001953,
        -0.001953,
        -0.001953,
        -0.001953,
        -0.003906,
        -0.0,
        0.001953,
        -0.0,
        -0.011719,
        0.001953,
        -0.001953,
        -0.001953,
        0.0,
        -0.005859,
        -0.003906,
        0.007812,
        -0.003906,
        0.001953,
        0.001953,
        0.003906,
        0.019531,
        0.0,
        -0.009766,
        0.005859,
        0.0,
        0.001953,
        0.001953,
        0.009766,
        0.001953,
        -0.021484,
        0.001953,
        0.011719,
        0.001953,
        0.001953,
        0.005859,
        0.001953,
        -0.001953,
        0.001953,
        -0.009766,
        0.001953,
        -0.001953,
        -0.009766,
        -0.001953,
        -0.019531,
        -0.0,
        -0.009766,
        -0.001953,
        -0.013672,
        -0.001953,
        -0.0,
        -0.0,
        -0.009766,
        -0.005859,
        -0.0,
        -0.007812,
        0.001953,
        -0.007812,
        0.003906,
        -0.0,
        -0.027344,
        -0.003906,
        -0.001953,
        0.001953,
        0.001953,
        0.0,
        -0.0,
        -0.011719,
        -0.007812,
        -0.005859,
        -0.001953,
        0.001953,
        -0.011719,
        0.001953,
        0.003906,
        0.0,
        -0.007812,
        -0.003906,
        0.0,
        0.0,
        0.007812,
        0.001953,
        -0.005859,
        -0.011719,
        -0.009766,
        0.011719,
        -0.005859,
        0.019531,
        -0.007812,
        0.001953,
        0.003906,
        0.0,
        0.007812,
        0.001953,
        -0.035156,
        0.003906,
        0.0,
        0.007812,
        -0.0,
        0.003906,
        0.005859,
        0.003906,
        0.0,
        -0.039062,
        0.019531,
        0.001953,
        0.0,
        0.013672,
        0.007812,
        0.009766,
        -0.011719,
        0.003906,
        0.011719,
        0.013672,
        0.003906,
        0.007812,
        0.025391,
        0.035156,
        0.007812,
        0.001953,
        0.003906,
        -0.0,
        0.005859,
        0.001953,
        0.0,
        0.0,
        0.005859,
        0.0,
        0.0,
        0.003906,
        0.0,
        0.0,
        0.001953,
        0.001953,
        -0.0,
        0.003906,
        0.001953,
        0.001953,
        0.009766,
        0.003906,
        -0.003906,
        0.0,
        0.005859,
        0.021484,
        0.013672,
        0.011719,
        0.0,
        -0.001953,
        -0.0,
        0.0,
        -0.0,
        0.005859,
        0.005859,
        -0.005859,
        -0.001953,
        -0.0,
        0.0,
        -0.001953,
        0.013672,
        0.003906,
        0.013672,
        -0.003906,
        0.0,
        -0.009766,
        -0.017578,
        -0.003906,
        -0.0
      ],
      "type": "dense"
    }
  ]
}